{"layers":[{"0":{},"1":{},"2":{},"3":{},"4":{},"5":{},"6":{},"7":{},"8":{},"9":{},"10":{},"11":{},"12":{},"13":{},"14":{},"15":{},"16":{},"17":{},"18":{},"19":{},"20":{},"21":{},"22":{},"23":{},"24":{}},{"0":{"bias":0.6598096014891397,"weights":{"0":0.167313254028244,"1":-0.1013574987814951,"2":0.03218487807945284,"3":-0.31643874907653996,"4":0.428805244583319,"5":-0.03142492601921502,"6":-0.006610762700438505,"7":0.3830272320769454,"8":0.10475891605019572,"9":-2.2615594888918342,"10":-0.028928334302356765,"11":0.4433166824959832,"12":0.7667507371723972,"13":0.39749832933104223,"14":0.34467110751165203,"15":-2.3322756669816105,"16":0.08110550539568068,"17":0.43136235318330146,"18":0.13164870655164124,"19":1.2512129102853462,"20":-0.7349287728932492,"21":-0.4636094847847503,"22":-0.28243422760116715,"23":-0.5540492896144069,"24":0.08471651008321103}},"1":{"bias":0.08659291358296635,"weights":{"0":0.11072691783270092,"1":-0.3704967004808396,"2":-0.04192565254239269,"3":-0.4700172830934439,"4":-0.027298077270777064,"5":1.2799366125314835,"6":-0.0792864914983511,"7":0.11478310239223646,"8":0.0012957010418176707,"9":0.8859130779299739,"10":-0.005395585971941966,"11":0.2913254684555216,"12":0.2011830389537898,"13":0.06315192922678381,"14":0.13697459233885895,"15":-0.9840552074799243,"16":0.012899924162775273,"17":0.17988238029835663,"18":0.001086182333529001,"19":-0.219079051355398,"20":-0.2812323853400743,"21":-0.17990165027130622,"22":-0.07124300978696213,"23":-0.026855820513257574,"24":-0.18416506189891818}},"2":{"bias":0.8667605649839059,"weights":{"0":0.22301043983277188,"1":0.2587261526188695,"2":0.4589451666661094,"3":0.22759812551502764,"4":0.2142317843968817,"5":-0.13794204754795,"6":-0.12042947746813298,"7":0.5906838126876981,"8":-0.16537891365587712,"9":0.12397897451553126,"10":-0.2550255352350065,"11":-1.0422907769109375,"12":-0.5645523491279821,"13":-1.0153523683908643,"14":0.3387809811505324,"15":-0.4292872850063714,"16":-0.0105218157172203,"17":0.5636236278736625,"18":-0.14518730873242022,"19":0.264610677542167,"20":-0.7488740038847582,"21":-0.5269638228019742,"22":-0.3071255900290248,"23":-0.48169561026376423,"24":0.5415631078528987}},"3":{"bias":0.39665257194030235,"weights":{"0":0.6127076986363186,"1":0.5201525005676183,"2":0.48752121596951714,"3":0.6172344611190613,"4":0.6165925950860635,"5":-2.8562231099521664,"6":-0.04606400281190873,"7":-0.008888003364045582,"8":-0.1760402291081846,"9":0.9451619225595739,"10":0.012059921380986162,"11":-0.9226114334217177,"12":-0.7588180119258467,"13":-0.9971332602812795,"14":0.26554228143077824,"15":0.2330320288782122,"16":-0.01964855017140507,"17":0.28559971931965256,"18":0.10861523551866414,"19":-1.1551612883623317,"20":-0.0805197731722629,"21":-0.2721675270367903,"22":0.2879792584498584,"23":-0.1492893584203463,"24":0.38380631209593824}},"4":{"bias":0.2754218514167442,"weights":{"0":0.3455297148032175,"1":0.9078727887294237,"2":0.6789091513595524,"3":0.9523287589012627,"4":0.13268163289782273,"5":-0.8745090713134087,"6":0.1032709366641939,"7":-0.26394177872613,"8":-0.10498492913320662,"9":-0.125910595978413,"10":-0.28233145380988045,"11":-1.1039905889092478,"12":-1.107409857058379,"13":-0.9661223319491808,"14":0.3551201911820161,"15":-3.2760338986785453,"16":0.07988325152546166,"17":0.026180774886907156,"18":0.13369475174695256,"19":0.5754511768060109,"20":0.30430744665199705,"21":0.35508365167761047,"22":0.49659146275902083,"23":0.5196157347642797,"24":0.1706578855579782}},"5":{"bias":0.1685418822843649,"weights":{"0":-0.287087010124029,"1":-0.1772919041989771,"2":0.0384626336050211,"3":-0.015314634791614861,"4":-0.2632504914861932,"5":-1.039592172222108,"6":-0.13801638446748257,"7":0.2918852950054621,"8":0.17719717007130387,"9":-2.9893411649547317,"10":0.340986276785682,"11":0.7018125336859895,"12":0.9039646775312701,"13":0.6619514096770958,"14":-0.13922766865909217,"15":0.8560593165174959,"16":-0.19951027464121582,"17":0.3175943686235162,"18":-0.07752392617985607,"19":-1.3539390785584497,"20":0.4105306324521681,"21":0.1771936693201451,"22":0.7838223051792026,"23":0.33801134405384275,"24":-0.22211305238053367}},"6":{"bias":-0.2110153222282049,"weights":{"0":0.1890518433364357,"1":-0.1194516792669329,"2":-0.5271837828280596,"3":0.11274691887578098,"4":0.30571697232744527,"5":2.3747606673152624,"6":-0.11478346670046449,"7":-0.2347059489982959,"8":0.009019445069134241,"9":0.9967619812588692,"10":-0.0506453862963124,"11":-0.131430348164219,"12":-0.7087645946516498,"13":-0.34676620519422324,"14":0.397335716145699,"15":-0.8793408570878808,"16":0.14340909849852324,"17":-0.29114208713274453,"18":-0.032657013181597,"19":1.460295407454745,"20":-0.5757802366554279,"21":-0.47395950940395887,"22":-0.8061108820239364,"23":-0.5562669847435796,"24":0.3522107039528238}},"7":{"bias":0.6688261337244052,"weights":{"0":0.2386354348879238,"1":-1.0978930180672701,"2":-0.5907920804834503,"3":-1.1014372979071136,"4":0.020230190481611655,"5":0.23076327137522576,"6":0.05580778988078239,"7":0.6919580378321536,"8":0.03843913581222297,"9":0.11552259531457697,"10":0.4000704864968472,"11":0.1752559383569484,"12":0.6851093612532905,"13":0.18592061066834395,"14":0.11970094202793495,"15":0.19122592909843816,"16":0.15448608091101051,"17":0.625676014994604,"18":0.05513406218960881,"19":-0.13721040557544273,"20":-1.0157202470156503,"21":-0.8879497434052799,"22":-0.43973074725918254,"23":-0.7692422436590465,"24":-0.02004182988070588}},"8":{"bias":-0.18318714136762776,"weights":{"0":-0.34376266369762615,"1":-0.6269263893260646,"2":-0.4724162090107736,"3":-0.3700012271187281,"4":-0.2506965145857881,"5":-0.7171653835505707,"6":-0.17857069559395314,"7":0.3164396970889599,"8":-0.07243353156372906,"9":2.2892501184128817,"10":0.002607643465260757,"11":1.1569285766667652,"12":1.191137988759389,"13":1.115580569252276,"14":-0.08918847929852688,"15":-0.3347791806085889,"16":0.1347894829697907,"17":0.34963958835071646,"18":-0.17588686533272269,"19":-0.306153665201187,"20":-0.3469352723995074,"21":-0.10544525934027803,"22":-0.03203111966873978,"23":-0.16710129286738412,"24":0.015080938076798573}},"9":{"bias":-0.12509195932291992,"weights":{"0":-0.02012776367843935,"1":-0.4748810781812877,"2":-0.20578203295710412,"3":-0.16136657611416944,"4":-0.3539187490801598,"5":0.21800524827202492,"6":-0.1860176314599812,"7":0.02157368683784648,"8":-0.19936531418934467,"9":0.10195660503267508,"10":0.09292322334869668,"11":0.709098642426948,"12":0.3386260601422881,"13":0.737166757057825,"14":0.0051304077868084335,"15":1.2942534168313278,"16":-0.11151161575689912,"17":-0.09647945812374943,"18":-0.18297326331958175,"19":-0.3531200714658454,"20":0.05614972351682762,"21":-0.289949702335471,"22":-0.19896439974966612,"23":-0.02680985876726452,"24":-0.3019170123945248}},"10":{"bias":0.26160923449618495,"weights":{"0":-0.2381329558487663,"1":-0.09067194795053221,"2":0.5643281511730736,"3":0.191115107780288,"4":-0.1404885776038897,"5":2.1881705137570213,"6":0.028743619844317447,"7":0.6257026960637065,"8":-0.04607333457097412,"9":-0.638457460623994,"10":-0.2778439175789269,"11":-1.0254124048458428,"12":-0.5425378408080325,"13":-0.9564249851102047,"14":0.011204777874456385,"15":1.5782904460428195,"16":0.0662830681540072,"17":0.5068747206154859,"18":0.19575953017920256,"19":0.4842804738349595,"20":-0.04123319476747158,"21":0.16694110142162602,"22":0.6425553928075242,"23":-0.04488780811333295,"24":-0.2308364742133446}},"11":{"bias":-0.6992881575704528,"weights":{"0":-0.0967333691361979,"1":0.05776912686350767,"2":-0.10811873831258291,"3":0.23368084770563088,"4":-0.3406725041735607,"5":0.40076458149889344,"6":-0.16742659863084555,"7":-0.23041632551107646,"8":-0.12016596151515842,"9":0.1393773202761525,"10":0.2915384986775622,"11":0.17150225578541126,"12":-0.4899501894474942,"13":-0.06840783278723986,"14":-0.19871026502732778,"15":0.6937168874137065,"16":0.15115569094195963,"17":-0.3174976140574004,"18":-0.023294578306376934,"19":-0.49740976377983165,"20":0.9360612538676183,"21":0.9409150033290905,"22":0.4483677286374399,"23":0.8775003179009486,"24":-0.08235639102567546}},"12":{"bias":0.2655396075944766,"weights":{"0":0.19527592745368122,"1":0.004815577098770561,"2":-0.2732848372978274,"3":-0.014119129127220666,"4":0.20793539409284217,"5":0.9317385222370048,"6":-0.0659774481318891,"7":-0.09619804994143416,"8":0.011531396396458143,"9":2.6208958048105617,"10":-0.15110090281028826,"11":-0.6821745389882146,"12":-0.7860890812137408,"13":-0.7286505311537197,"14":0.208264965775802,"15":1.9298660213177106,"16":-0.15113966539502144,"17":-0.27510236185915754,"18":0.1454118823632598,"19":-0.32059716793442383,"20":-0.42907362392295834,"21":-0.5156258776610024,"22":-0.638609584598511,"23":-0.33738266423468277,"24":0.5862465331586141}},"13":{"bias":-0.3333198136303144,"weights":{"0":0.40273842091009854,"1":0.3891015994748835,"2":-0.4939191938611695,"3":0.07877205493066379,"4":0.23297319660232357,"5":-0.6514188853664827,"6":-0.018336977809667587,"7":-0.4458917594203537,"8":0.0887578706257045,"9":-0.4454993653786011,"10":-0.061789320527640246,"11":0.7942486537418474,"12":0.1148953545016548,"13":0.6511381717196802,"14":0.4098347299386645,"15":-0.700014429710135,"16":0.09535670652985573,"17":-0.518170137858559,"18":0.18763587241992358,"19":0.09899984995432617,"20":-0.05360144493028459,"21":0.08578533618852509,"22":-0.6329946017033068,"23":0.02639843844950281,"24":0.29943257985905675}},"14":{"bias":0.06652688081509472,"weights":{"0":-0.06401742575055495,"1":0.38639777164396916,"2":0.3541008402259941,"3":0.3428141915374724,"4":-0.2426855080697534,"5":0.14757002448901882,"6":0.015547840297222143,"7":0.30971503755977564,"8":0.014411649759858841,"9":-1.778261370797525,"10":0.04435556895062849,"11":-0.7592649673116594,"12":-0.44528695098204335,"13":-0.7282111511570606,"14":-0.35397239419928145,"15":2.4407937549695338,"16":-0.14867569049820306,"17":0.18408691170593966,"18":-0.043916913494467746,"19":-0.940767214056985,"20":0.5602332848285515,"21":0.6032699822609496,"22":0.39853171256090003,"23":0.5407150229600451,"24":-0.28628391306212536}},"15":{"bias":0.4843459715549862,"weights":{"0":0.10218633461479988,"1":0.24987289830221066,"2":0.522863634772675,"3":0.06515765105484406,"4":0.043132334311650464,"5":-2.343010906066363,"6":0.0027428752742707785,"7":0.5738961974278999,"8":-0.006357196625322109,"9":1.079851547414371,"10":-0.5110587372588742,"11":-0.057924179581253385,"12":0.3507070120196967,"13":0.00471358910456403,"14":0.29515694763247763,"15":0.021338439641024665,"16":0.1307150634005666,"17":0.6423983706281478,"18":0.1253616467118263,"19":-0.39875813161006907,"20":-0.2501914856410236,"21":-0.4584751075519866,"22":0.09233729287184195,"23":-0.5763642356185847,"24":-0.008975885513081552}},"16":{"bias":-0.2726123173065973,"weights":{"0":-0.12833008849337887,"1":-0.1893971525611054,"2":-0.07328306757398281,"3":-0.10768071892798681,"4":-0.2841793776424259,"5":0.7480957508632302,"6":0.17222615834325555,"7":-0.12822270662881038,"8":0.15349626215174794,"9":-0.4522411472106729,"10":-0.09875608389422728,"11":-0.3410266855762904,"12":-0.3249105062309596,"13":-0.28144167745798837,"14":-0.3205529020102355,"15":2.1541893061669573,"16":0.13567851716652513,"17":0.05700260485165249,"18":-0.06971862493082881,"19":0.3330698257411376,"20":0.2874894368368298,"21":0.25201496378510324,"22":0.010501665525207303,"23":0.3815688991825197,"24":-0.31190462530866575}}},{"0":{"bias":-1.1299959090839478,"weights":{"0":-1.993777676360531,"1":-0.8517670375565557,"2":-0.07017442239922632,"3":0.23367855289249198,"4":0.882389696986606,"5":-1.7317056874399797,"6":0.02593328455015939,"7":-0.6969279624076126,"8":-2.5769845609009816,"9":-1.2023540807466853,"10":1.3850805103707935,"11":0.4289186259874434,"12":1.1194768936404662,"13":-1.644957684847666,"14":1.0697114100943867,"15":-1.0769189864494575,"16":0.48567582574187856}},"1":{"bias":-0.6985973784484079,"weights":{"0":0.6020049313863212,"1":-0.3103217495640902,"2":0.7549497105140418,"3":-0.019927590553189416,"4":-0.6066165062111945,"5":0.803360718697609,"6":-2.0230404718839665,"7":1.2413020223103395,"8":-0.07402095822433886,"9":-0.635214208410012,"10":1.1569142002297852,"11":-1.447915810730547,"12":-0.893027256876409,"13":-2.378729784468744,"14":0.0307999887033884,"15":1.3231470343492102,"16":-0.5179261813553655}},"2":{"bias":-0.5455331218128316,"weights":{"0":-2.752859005578133,"1":-0.8762309810985608,"2":-1.0659473399199508,"3":1.4376110276109757,"4":-1.3400736881047424,"5":1.3381905481236571,"6":-2.8915860897083725,"7":-0.516803208697013,"8":0.2090294076704706,"9":0.3097514338318489,"10":-1.5798817226069677,"11":0.4418497466858051,"12":0.3847013901011926,"13":-0.14608600320483994,"14":0.5196483726930133,"15":0.6089060167102739,"16":-0.3835019090345001}},"3":{"bias":-0.40091304619389007,"weights":{"0":0.08682167669249662,"1":-0.714389326280747,"2":-1.0985678836677564,"3":0.6339590760757006,"4":1.7865851644428288,"5":-0.5141584836473118,"6":-1.4709407951861189,"7":-1.1050551560607784,"8":1.3065145093669832,"9":-0.5722290393041964,"10":-2.878610232134388,"11":0.17890645440684602,"12":-1.8954988900473584,"13":0.725317804640924,"14":-1.8847522560558678,"15":1.0359421877790083,"16":-1.1474153973825187}},"4":{"bias":-0.3579531590523191,"weights":{"0":0.9194227372190005,"1":0.3657747425992778,"2":-0.766227828192425,"3":-1.050731053479532,"4":-2.120160573498002,"5":-1.0940757184341003,"6":0.7809081410950088,"7":1.8207039583985456,"8":0.7791742252894138,"9":-0.12408524168917258,"10":-0.972275577845965,"11":-1.363479749286967,"12":0.48568980712548016,"13":-0.3573871959063677,"14":-2.048091375038865,"15":-0.8108770225869846,"16":-1.0204179617376923}},"5":{"bias":-0.4475653114984424,"weights":{"0":2.368505446488904,"1":-0.18093328161413041,"2":-0.6458168981665989,"3":-1.6221428020715032,"4":1.356044763465803,"5":0.9939065152750861,"6":0.1877491458375157,"7":-0.9997029402708953,"8":-1.2309202852689978,"9":-0.8040795605454524,"10":-0.336374906381575,"11":-0.13357530027118944,"12":-3.0994230391292223,"13":0.3981081794366121,"14":-0.6289105419220977,"15":-1.7064635949918259,"16":-0.882788317514045}},"6":{"bias":-0.6975176078710722,"weights":{"0":-0.5116739575031867,"1":-1.3852495812590906,"2":-1.1384379273393102,"3":-1.7660716524515028,"4":-2.065226261320353,"5":1.853941974648455,"6":-1.1847315688333004,"7":-0.5429953283436385,"8":-1.717487391037412,"9":0.46091137723187814,"10":0.9830416669161216,"11":0.14075503153721522,"12":-1.6217267016605297,"13":-0.10674090233549699,"14":1.7705530246888292,"15":-1.4667988440004367,"16":1.3915959746384265}},"7":{"bias":-0.8427611261285397,"weights":{"0":0.12175321164500957,"1":-0.9764006260516991,"2":1.676674462781108,"3":1.0890951811634675,"4":0.7918417365295651,"5":-1.9749552721899386,"6":0.49723635729566706,"7":-0.7385416531196868,"8":-1.0703410056272522,"9":-1.410734517371729,"10":-0.717161792160792,"11":-1.9477342540779545,"12":0.9501767607819663,"13":-0.4512365950146114,"14":-1.4230048311067052,"15":0.9282021074049727,"16":-1.2725554322790213}},"8":{"bias":-0.9041631791727933,"weights":{"0":-2.5569078088220256,"1":-0.1614562751859115,"2":-1.6789226188751516,"3":-2.0104132572460665,"4":-2.4168916808816414,"5":-1.3571016587436617,"6":0.38521744509147415,"7":-1.1384391908428166,"8":1.0474834958141381,"9":0.6020652831223636,"10":0.795745692513009,"11":0.44912768015306603,"12":1.469517611232947,"13":-0.47576995082014584,"14":-0.46383949671077057,"15":-0.6923201608984026,"16":0.7314650753768197}},"9":{"bias":-0.7307886874296278,"weights":{"0":-0.7257849150323936,"1":0.953586322894845,"2":-1.0191136530755407,"3":-2.1052021588680634,"4":1.178028103210913,"5":-2.1198248520800376,"6":1.2981737996039995,"7":-2.1336996925731393,"8":0.8312982519596052,"9":-0.5022332794910292,"10":-0.13942692610720014,"11":0.8284074686053297,"12":-0.25803637732223755,"13":-0.3207611156994544,"14":-2.0484459852268255,"15":-1.2699590971117152,"16":-0.7536530215578652}}}],"outputLookup":false,"inputLookup":false}