{"layers":[{"0":{},"1":{},"2":{},"3":{},"4":{},"5":{},"6":{},"7":{},"8":{},"9":{},"10":{},"11":{},"12":{},"13":{},"14":{},"15":{},"16":{},"17":{},"18":{},"19":{},"20":{},"21":{},"22":{},"23":{},"24":{}},{"0":{"bias":0.08761772309228463,"weights":{"0":-0.15794653591220958,"1":0.04288861214069297,"2":0.18567573609353982,"3":0.008897215899802876,"4":-0.16865117919152364,"5":-0.13654217849867742,"6":0.16060908371582627,"7":-0.023482081557768975,"8":0.1859898755326867,"9":0.00204266128972266,"10":0.2165863014527112,"11":-0.0628407233511821,"12":-0.07202321309198896,"13":0.08418948565369691,"14":0.06887004090020704,"15":0.044641600787136866,"16":0.015713707916438585,"17":-0.07330644715871289,"18":-0.16252748034894468,"19":-0.16760632943064588,"20":-0.0025955237738028757,"21":-0.12436174091987189,"22":0.09967435988199497,"23":-0.029137836518807796,"24":-0.12664073534762246}},"1":{"bias":-0.17078157517831066,"weights":{"0":0.09625480701906741,"1":-0.006800592177620975,"2":-0.004355045074970644,"3":-0.1449718779410037,"4":-0.062342785152214156,"5":0.03504257526798867,"6":-0.061714964732527744,"7":-0.1250152870019175,"8":-0.08197613302618266,"9":0.1955096232427504,"10":-0.04512079783307507,"11":0.01094568856176138,"12":0.18086279091231378,"13":-0.06320955427247897,"14":-0.019414384516494815,"15":0.011809132189260517,"16":-0.048733505606651295,"17":-0.06209735404078154,"18":-0.12024956811219455,"19":0.1131132920762658,"20":0.16799701091635838,"21":0.14630956177402155,"22":-0.03175431104883913,"23":0.027817510653173942,"24":-0.12648391355069272}},"2":{"bias":0.11309171990368151,"weights":{"0":-0.000748492026160272,"1":0.12649450391271816,"2":0.021537469249596635,"3":-0.07251655463388428,"4":-0.14493576241044195,"5":0.11807526424515284,"6":-0.14141959678381683,"7":0.002714077717800151,"8":0.10546169858425858,"9":0.03778409936880948,"10":-0.002699942247448645,"11":0.18047954002192443,"12":-0.0877467928854647,"13":0.09274416621571618,"14":0.08211775459962056,"15":-0.11100980337438945,"16":-0.16868425514549018,"17":-0.03747245431021951,"18":-0.04745026594027876,"19":-0.1653028107743782,"20":-0.17899876605983192,"21":-0.1547752631482046,"22":-0.18423562096771265,"23":0.05710714025159015,"24":-0.03542505110932405}},"3":{"bias":0.21268571649787557,"weights":{"0":-0.16026773792836044,"1":-0.0922301438135106,"2":-0.03686098076467275,"3":-0.03159037450896747,"4":0.1073660822105103,"5":0.116643626316768,"6":0.17034464273601774,"7":-0.030379095463628967,"8":0.13980512646958232,"9":0.08462752442250672,"10":0.024524047688083396,"11":-0.0649468160390335,"12":0.1699327076865997,"13":0.19611231589993036,"14":-0.08241771380561658,"15":-0.009506016024080405,"16":0.1771180014126003,"17":0.08849289875981688,"18":-0.19490565322339537,"19":0.08737995669131511,"20":-0.1695095503684909,"21":0.057879326308068205,"22":-0.11940699943590002,"23":-0.12951256427735403,"24":-0.05732218246120278}},"4":{"bias":0.17586525546592663,"weights":{"0":0.021603963145990324,"1":0.09699222985167118,"2":-0.03281859279178689,"3":0.12337362728525016,"4":-0.02826976012996918,"5":0.1548760344832362,"6":0.08378333132714033,"7":0.10324306601646638,"8":-0.08266622750088573,"9":0.12352241067659307,"10":0.1661436813773864,"11":0.03867876810745965,"12":-0.044424129149271976,"13":0.13096355546058824,"14":0.20128303812258408,"15":0.19690173196536362,"16":0.1384308267384768,"17":0.16163063116359774,"18":-0.1639015813358128,"19":-0.0649027594293262,"20":-0.1326331540113442,"21":-0.05482888278645745,"22":0.0019862236537594555,"23":-0.15350541883242655,"24":0.12037889146618982}},"5":{"bias":-0.06715876632289869,"weights":{"0":-0.1516889042805139,"1":-0.14722492050434452,"2":-0.11763412122802666,"3":0.18233208695371647,"4":-0.15382293263703622,"5":-0.1320822176954513,"6":0.08099873894825577,"7":0.13401983863541075,"8":0.05020479056984184,"9":-0.17267614182379606,"10":0.08994307829288281,"11":-0.0013221514038669554,"12":-0.017788345060702634,"13":0.13575722998008896,"14":-0.11518679611638227,"15":0.047726411663917015,"16":-0.19282591994851828,"17":-0.027227661117378538,"18":-0.14061579052358866,"19":0.09336119546762522,"20":0.09394303627731687,"21":-0.1935262441406916,"22":-0.0672089029913058,"23":0.05736626463430423,"24":-0.03443308608859834}},"6":{"bias":-0.015963367866506685,"weights":{"0":0.047034771324120116,"1":-0.0845567784281304,"2":0.018782945312553027,"3":-0.051705183275960895,"4":-0.009328758667238297,"5":0.034006497728563616,"6":0.004190495610237127,"7":0.15626912215815703,"8":0.1441363045014441,"9":-0.15700300182865368,"10":0.004333018347776152,"11":-0.19156593127541138,"12":-0.1366718918112498,"13":-0.17306993469960882,"14":0.06497310134860095,"15":0.1054195883131669,"16":-0.013481705076992506,"17":-0.008401915746762065,"18":-0.11223520105704665,"19":-0.19078974062465273,"20":-0.18246234797854094,"21":-0.18103561404142646,"22":-0.027943355095409086,"23":0.12628234342690434,"24":0.1601102141225558}},"7":{"bias":0.1022192983907393,"weights":{"0":-0.09478665040609059,"1":-0.07279532794788306,"2":0.16974379417511073,"3":-0.08464436019718473,"4":0.13208369249674884,"5":-0.12770900573871583,"6":0.17362488657236103,"7":0.19788206897648167,"8":0.035071389656513935,"9":-0.14602635781562825,"10":0.05354951171465605,"11":-0.16614724783952386,"12":-0.14807982339345696,"13":-0.044876023519588644,"14":-0.08916268031847296,"15":0.007341463975856969,"16":-0.14091143980622292,"17":0.016036720648129697,"18":0.13654384631663563,"19":0.12781536539323424,"20":0.08962784257833978,"21":0.21228529910673616,"22":0.0975719981370056,"23":-0.1649302822805453,"24":0.10474305255535425}},"8":{"bias":0.012231496171759127,"weights":{"0":0.16497817621401842,"1":-0.08447915023501884,"2":-0.015037390395130903,"3":0.18619752660084585,"4":0.16101591936148105,"5":0.11096505264861027,"6":0.16218280503526333,"7":0.03784347937652046,"8":-0.0470834869891405,"9":0.07833558957783682,"10":0.06352698656629883,"11":0.05526851322676199,"12":0.14741677583579296,"13":0.18754639839927828,"14":0.008404923182198508,"15":0.10663227642483925,"16":-0.05722753647714854,"17":-0.019255493420873255,"18":0.008601375669240963,"19":0.1284545033831935,"20":0.09670106267311443,"21":-0.07439566541708242,"22":0.19225580896215483,"23":0.1229325845999347,"24":0.01993318949661566}},"9":{"bias":0.06632586956871535,"weights":{"0":-0.00909001167375084,"1":0.002906215672294418,"2":0.007924535871742692,"3":-0.02026082927649201,"4":-0.12458300973731518,"5":0.08412259259138151,"6":0.06329457322135568,"7":-0.14247774511168573,"8":0.06363899987190963,"9":-0.013515318446532624,"10":0.11574049240082229,"11":0.18242182512930885,"12":0.23077138693642327,"13":-0.0529276148865438,"14":0.18778518241387382,"15":0.02297380338645584,"16":-0.13841245220974088,"17":-0.17021491854975793,"18":-0.1526815631426871,"19":0.11836084057442749,"20":-0.11230967375191081,"21":0.1042631078071693,"22":0.022695745096681486,"23":0.13168616541920036,"24":0.10071097163972041}},"10":{"bias":0.10525627698074441,"weights":{"0":0.1348648160680344,"1":0.16642088728153687,"2":-0.025362907650466254,"3":-0.17365440385288022,"4":-0.03411705978371599,"5":0.1570973976392052,"6":0.10675233211368323,"7":-0.19028291440003725,"8":-0.001199225615710009,"9":0.12258149809022534,"10":-0.07750139256941989,"11":0.0880416088199357,"12":0.06996931290093936,"13":-0.011245228403981414,"14":-0.12426009597413663,"15":0.12694665070760427,"16":-0.09928286941722037,"17":0.16547498862824234,"18":-0.18414430310949684,"19":0.0899112395292166,"20":-0.054826777574577365,"21":0.1502609772077129,"22":-0.11096809649923839,"23":0.08073992677315235,"24":-0.06494168145738975}},"11":{"bias":0.0454810999916979,"weights":{"0":0.006570096379873109,"1":0.06372575447950754,"2":-0.10706151598877502,"3":0.018003001763115218,"4":-0.0960715304400952,"5":-0.06476943369787325,"6":0.08541359752416611,"7":-0.17509184378068338,"8":-0.10285908319056035,"9":0.012215043005668759,"10":-0.05603738243398098,"11":0.19174597474432648,"12":0.01754767378609226,"13":-0.12086453003191343,"14":0.08445492151266026,"15":-0.06529871171904172,"16":0.1895000232383609,"17":0.047187868404579725,"18":-0.004913599882274855,"19":-0.009767020911378084,"20":0.17234202591047929,"21":-0.07019598926140538,"22":-0.12990568415785364,"23":-0.15378691334931807,"24":0.19338880299663214}},"12":{"bias":0.07541927924656941,"weights":{"0":0.01422254842189951,"1":-0.09762322644909611,"2":0.08315397781050288,"3":0.07469405668581135,"4":0.13169211110515466,"5":-0.1668553655290691,"6":-0.1672698718495667,"7":-0.12145491099048193,"8":0.0435651876963675,"9":0.015744549043495717,"10":-0.07692382271684263,"11":0.09243904760803738,"12":0.1359976818103327,"13":0.14205190407808582,"14":-0.149340851340015,"15":-0.03239240838102893,"16":0.08163080820813773,"17":0.006614449284339574,"18":0.015373462066054333,"19":0.1456771733925852,"20":-0.19824908508892242,"21":-0.15130311905379476,"22":-0.17038778624533557,"23":-0.11386702203164874,"24":0.061081199519763554}},"13":{"bias":0.06799970865369624,"weights":{"0":-0.13639449586185956,"1":0.11719955806837888,"2":0.09962872256580292,"3":0.04226169004322552,"4":-0.1851128288267865,"5":0.11768671329058522,"6":-0.15744316512718798,"7":-0.06930371221316967,"8":0.021692720893770445,"9":0.14308740315471216,"10":0.14289163839567745,"11":0.14189464698460866,"12":0.07728294442160932,"13":-0.17761595075103476,"14":0.04126401304241877,"15":0.07712600663494625,"16":-0.04829946337267757,"17":0.16920433280827413,"18":0.0444205122999847,"19":-0.08824385053638369,"20":0.09803971375146082,"21":-0.1302939987108753,"22":-0.11382349766214228,"23":-0.17516684050864437,"24":-0.03295454920295016}},"14":{"bias":-0.059227136183723314,"weights":{"0":-0.06818879006329533,"1":-0.10324438258843444,"2":0.1444956423694941,"3":-0.18210577655421484,"4":0.003357523382719924,"5":0.2110302270528175,"6":0.08738752994686366,"7":-0.1539471660962967,"8":-0.11893929308280349,"9":0.04316301084131637,"10":0.08245754644777016,"11":0.1443221509659472,"12":0.07369066476627292,"13":-0.06583892635835417,"14":0.04610257025909084,"15":0.09422259391590132,"16":0.19401004239916803,"17":-0.18457494994985738,"18":0.09762451676651834,"19":-0.09724157147685476,"20":-0.17333944769012752,"21":0.13717005128604368,"22":0.10905205844173325,"23":0.11040206930232191,"24":0.034714623988684544}},"15":{"bias":-0.03089283321036996,"weights":{"0":0.022570380123321812,"1":0.06635520911258333,"2":0.045865002643008725,"3":0.17642910337489748,"4":-0.06155626827665706,"5":0.014761914386750492,"6":0.1462331752292812,"7":-0.051612303097525396,"8":-0.019600154552608717,"9":-0.0019469398108520736,"10":-0.13269779236283713,"11":0.14148546865239547,"12":0.1332275193292099,"13":0.060158249251841545,"14":-0.15787689590641393,"15":0.13419483562085258,"16":-0.19394030328840017,"17":-0.14194363827703319,"18":0.0002917327918112167,"19":0.21797921506589513,"20":0.13284822379240016,"21":0.20930896320381412,"22":-0.057578991482748,"23":-0.0917398890200898,"24":-0.03527948630788479}},"16":{"bias":-0.06542232715500577,"weights":{"0":0.2024869398372399,"1":0.15627919564417236,"2":-0.06199244315989189,"3":0.14899403823933238,"4":0.0692183242337924,"5":0.14259901716965032,"6":-0.035581764392554754,"7":-0.07713322991220865,"8":-0.01590986242517828,"9":0.16032060836674802,"10":-0.04979277283448905,"11":0.12708594769283785,"12":0.0854739664155339,"13":-0.05961914641738236,"14":0.20572814896424882,"15":0.1779035663231333,"16":-0.0776533697731793,"17":0.18436261538700532,"18":-0.11014199946075678,"19":0.0287938225862746,"20":-0.10858368767249406,"21":0.1942274532670989,"22":0.18192613410292507,"23":-0.17642294974821665,"24":-0.12351192690709975}},"17":{"bias":0.16519172818890776,"weights":{"0":-0.10694601775147021,"1":0.08360140953629124,"2":0.13524588664349244,"3":-0.03937898058028108,"4":0.07728010428138075,"5":0.158371252324198,"6":-0.07327801464125513,"7":-0.11762631223666237,"8":-0.019588141515851032,"9":0.16582723105795358,"10":0.11328335917658972,"11":0.13785918934077537,"12":-0.16924031910809045,"13":-0.1859677703884193,"14":-0.0690617243479937,"15":-0.06211638889962939,"16":0.0928849080577493,"17":0.12389641511124816,"18":-0.1283132191747427,"19":-0.025212276251192087,"20":0.1118237187579149,"21":-0.1145892543293661,"22":0.040777742764166895,"23":-0.11993482304216685,"24":0.12985298496671036}},"18":{"bias":-0.16327211606099684,"weights":{"0":-0.03823899559074723,"1":0.12521022429066286,"2":-0.0195513472950619,"3":-0.1335264854009213,"4":-0.19064252914258933,"5":-0.203307614756684,"6":0.12331934906542302,"7":-0.02314226908568534,"8":0.0032591652125120163,"9":0.09525036631734611,"10":0.014981190725559031,"11":0.1307268051127752,"12":-0.10168128055713971,"13":-0.09487429841655869,"14":-0.06941810732105483,"15":-0.15931781861720284,"16":0.08260695654898881,"17":-0.02110563863028081,"18":-0.05245101572945715,"19":0.1013714915166146,"20":0.035532444009740025,"21":0.029579076396484074,"22":-0.08548343682416383,"23":-0.07005437338520214,"24":-0.11684157464051362}},"19":{"bias":-0.1334146086686489,"weights":{"0":0.10292203272956217,"1":-0.04041812995135606,"2":-0.11144592278650926,"3":-0.1426402101075624,"4":-0.02743788524267465,"5":-0.021862336774480306,"6":-0.024969068262726074,"7":0.049249387035601624,"8":0.14073118213564156,"9":0.009045906205972412,"10":0.135955830724321,"11":0.06318697558538247,"12":0.11663107591176519,"13":-0.009122363647360163,"14":-0.008106921750281087,"15":0.13160477448280533,"16":0.07850687373429538,"17":0.10793351667606171,"18":0.15515897832810882,"19":0.17495424024029413,"20":-0.050110914524735796,"21":0.055731226537285454,"22":-0.09152818629295485,"23":-0.023522708997221545,"24":0.144769059822735}},"20":{"bias":-0.19651825888966978,"weights":{"0":0.053478399274468576,"1":-0.012432233911562195,"2":-0.20223681811048297,"3":0.02248182425592526,"4":-0.00726816506910296,"5":-0.134822625386159,"6":0.13665344882756475,"7":0.04680267009762111,"8":0.19322845321148635,"9":0.11223790432233403,"10":-0.10054009659431405,"11":0.014947270395290037,"12":-0.13094039984350048,"13":-0.07254970802174879,"14":-0.16494087476137292,"15":-0.1881896493350755,"16":-0.02188177965581417,"17":-0.023120154013214798,"18":-0.14179616505280138,"19":0.04631643678085983,"20":-0.1390903212134531,"21":-0.03092880267694469,"22":0.049225908665183234,"23":0.07369094733104214,"24":0.005614514911145235}},"21":{"bias":-0.0009796638130500305,"weights":{"0":0.20324712704988115,"1":0.16733979901413865,"2":-0.1638809341505976,"3":0.12571949066709195,"4":0.12858276024581808,"5":-0.004576365654977723,"6":-0.0018571479246020373,"7":-0.11111194498363981,"8":-0.1520153595134616,"9":0.10857218743812569,"10":-0.07573183607337669,"11":-0.04897857176297779,"12":0.13593479715602905,"13":0.005429346690238725,"14":-0.051009807529580245,"15":-0.0449320514439376,"16":0.1433628863655031,"17":-0.1877652957801907,"18":-0.1846352710388601,"19":0.0010083174506804917,"20":-0.16434960747171354,"21":-0.021686582081356917,"22":0.15906071627951865,"23":0.09835916869308615,"24":-0.15874386716513045}},"22":{"bias":-0.09852907940207616,"weights":{"0":-0.14973648975390855,"1":-0.004733594417657569,"2":-0.08561247996967332,"3":-0.16607611030721317,"4":0.055602584101522114,"5":-0.11916044385327838,"6":-0.08943366976454854,"7":0.11187037136805378,"8":0.17635459620505572,"9":-0.13345508409864415,"10":-0.08220831769531194,"11":-0.011768086998630087,"12":0.04118619151915602,"13":-0.16266547851162014,"14":0.19977890054907738,"15":0.194888391768774,"16":0.18057450382038953,"17":0.031174185596678006,"18":0.12735797110944985,"19":0.1035456501948879,"20":-0.03795059543709164,"21":-0.16770618750388655,"22":-0.08032561574337745,"23":-0.07806884382526262,"24":0.050422394063586125}},"23":{"bias":-0.15084528934099095,"weights":{"0":0.06270722274472013,"1":-0.17001221535553723,"2":-0.16459104721191578,"3":-0.11394522135903667,"4":-0.14113770152638577,"5":0.06127469553045714,"6":0.004877962730824942,"7":0.1993130549516003,"8":-0.18567812042310836,"9":0.07550815887131042,"10":0.09899425841549761,"11":-0.03543406606501156,"12":-0.1644392047614213,"13":0.1415905335653746,"14":-0.05200864763195622,"15":-0.060130980181538965,"16":0.029024275857955223,"17":-0.09085632714373632,"18":-0.0043477959930896815,"19":0.16329480378718236,"20":0.040236041928230284,"21":0.12843566895514574,"22":-0.025636584664413653,"23":-0.018735950206817797,"24":0.007313834808664408}},"24":{"bias":-0.19948306988060605,"weights":{"0":-0.17032274871096525,"1":0.12260667074958786,"2":-0.15756616959053105,"3":-0.1080404243569543,"4":0.10299325895532442,"5":-0.028980302664668573,"6":0.13917621588334445,"7":-0.07465454677311636,"8":0.14347055871039632,"9":0.17820004528341282,"10":-0.006358318820092752,"11":-0.10024862906588064,"12":0.16754743703756714,"13":0.07527316061156049,"14":0.12845245965793223,"15":-0.1733574159101997,"16":0.07401243625208737,"17":-0.17013630775926578,"18":0.1598694831132889,"19":-0.15426602306604223,"20":-0.06118966433464037,"21":-0.13591950209124423,"22":0.0804464602706179,"23":-0.05715077285899269,"24":-0.022685886332397914}}},{"0":{"bias":0.11359141584928872,"weights":{"0":-0.09678278959335279,"1":0.13910933852526394,"2":0.05314882324076904,"3":0.10783461987262216,"4":-0.10049430767307803,"5":-0.015083271091676686,"6":-0.12875779016552935,"7":0.11754015181071416,"8":0.05206384711866278,"9":0.07165590100301705,"10":0.09607722339979319,"11":0.0509170393323208,"12":-0.13773909927357242,"13":-0.07397630741385408,"14":-0.017871437572360437,"15":0.16149161728522332,"16":0.1622105918441541,"17":-0.09274724138305017,"18":-0.1545085594413051,"19":-0.029387650003601076,"20":-0.003801650172270381,"21":-0.06326955751161328,"22":0.03050808714829916,"23":0.03560901000289676,"24":0.054069695627963085}},"1":{"bias":0.019031178195743428,"weights":{"0":-5.913030544138036e-7,"1":-0.030916926877186873,"2":0.21329470185713248,"3":0.11821707053943571,"4":-0.0567159108893075,"5":-0.14085061657321468,"6":0.016674245822266103,"7":-0.036098616682343765,"8":-0.10177901734415636,"9":0.20348071820246708,"10":0.22675728244032978,"11":-0.14670029106887436,"12":0.20487486748034534,"13":0.030744491749841864,"14":0.007599983363455666,"15":0.05060749628118218,"16":-0.10516037377601462,"17":-0.04090090099776545,"18":0.03984184262553815,"19":-0.11443852891138911,"20":-0.06666842661897147,"21":0.09299433575957539,"22":0.02180335989765766,"23":0.03324177152012933,"24":0.029892972233856258}},"2":{"bias":0.2785387840436712,"weights":{"0":0.19497526238412716,"1":0.14152031066956164,"2":0.003610120573143637,"3":0.16214179994037867,"4":0.044627669997112325,"5":0.21932283280918213,"6":0.07225077013316371,"7":0.09421315214388262,"8":0.0534947051575193,"9":0.09781075393566255,"10":-0.011795080025122669,"11":0.16432291359492335,"12":-0.017586928024988235,"13":0.14578442362095428,"14":0.05947038505611291,"15":0.06040076194358596,"16":0.24132476383847715,"17":0.011461285916776032,"18":0.024901223121612942,"19":0.08014666225691552,"20":0.14651844979941558,"21":0.17233898627215866,"22":-0.031172958495564024,"23":0.009488563638701956,"24":0.21199389576063318}},"3":{"bias":-0.019717800196534754,"weights":{"0":-0.0439873706494243,"1":0.0812786198452752,"2":0.04105395749967122,"3":-0.08328655139481458,"4":0.1791946726329832,"5":-0.09209765605815179,"6":0.0017566531464190411,"7":-0.10189143641446692,"8":0.14920657697224798,"9":0.021804443775990973,"10":0.047046060994952336,"11":-0.030583375695711693,"12":-0.0048579324842344005,"13":0.002112231721898058,"14":0.1333864262932742,"15":0.21193482665296456,"16":0.189678946688204,"17":-0.05945777030107814,"18":0.023750718132813722,"19":0.07056633258039624,"20":-0.1273253428907241,"21":0.20689352689714738,"22":-0.026655195090852207,"23":0.03548863937174184,"24":0.0335273349368878}},"4":{"bias":0.07208101714792825,"weights":{"0":0.06625579994236554,"1":0.13208486742058684,"2":-0.13185447669559816,"3":0.24288032244424268,"4":0.1628153133746395,"5":0.20840358932898984,"6":0.2257230099613298,"7":-0.018000839956966778,"8":0.08507291258565237,"9":0.16526703310166754,"10":0.2489553399595434,"11":0.10529489859653517,"12":-0.02250682472656684,"13":-0.09586246991294195,"14":0.22336184764287076,"15":0.11105933986340284,"16":-0.06768300759162083,"17":0.09590218364499448,"18":0.0017309540546440398,"19":0.021915655348895568,"20":-0.0010410124623886857,"21":0.05977510396447538,"22":-0.0065337721284103225,"23":0.16960065054072235,"24":-0.10088533646966269}},"5":{"bias":0.14922347516625084,"weights":{"0":0.19134140242166783,"1":-0.09893323103780936,"2":0.1084502033911279,"3":0.2161066622435336,"4":0.0551890175025336,"5":-0.1209405309868943,"6":-0.11838105538727818,"7":0.07453260728067532,"8":0.1437561294683832,"9":0.23383744604653384,"10":-0.029644449588221353,"11":0.200840311697074,"12":0.007489337575934385,"13":-0.07943257087259437,"14":-0.09164401713897218,"15":0.013117790066223548,"16":-0.07665491532193269,"17":0.17615280894488536,"18":0.23443675530694738,"19":0.12074632275462992,"20":0.03709115544612234,"21":-0.0855225491275134,"22":0.20297541677844438,"23":0.019910421147992845,"24":-0.05101777169275823}},"6":{"bias":0.21166970227736961,"weights":{"0":-0.08584175905778565,"1":-0.046535828801217705,"2":0.23144630931240812,"3":-0.03366117750160402,"4":-0.004201570576184202,"5":-0.1506312700201844,"6":-0.010836676271372104,"7":-0.10219470568245827,"8":0.0877310433048389,"9":-0.024220176328545843,"10":0.10619332386238613,"11":-0.09848252577821168,"12":-0.11666876584024392,"13":0.07172299654732438,"14":0.04170068038927706,"15":-0.13941115357052428,"16":0.17774670862422592,"17":-0.06648843851757377,"18":-0.04899797369805635,"19":-0.1490811657916269,"20":0.12388481049148015,"21":0.21456911780806553,"22":0.17544326994528878,"23":-0.08607496584563128,"24":-0.01683344100511859}},"7":{"bias":0.30858047174013314,"weights":{"0":0.15515158811332652,"1":-0.0817227927140352,"2":-0.01265388426727077,"3":0.023144664084794795,"4":0.2595813635716441,"5":0.060813158709807656,"6":0.008836665015359894,"7":0.10864013141608866,"8":0.305343662243081,"9":-0.020324684509944242,"10":0.08466254653505303,"11":0.18615811612261218,"12":0.07413066011658773,"13":-0.02867590100580652,"14":-0.04919323583186397,"15":0.26563887979140405,"16":0.06679113693781015,"17":0.06727133923641206,"18":-0.12185427403240533,"19":0.06469866115328476,"20":0.15834526937326884,"21":0.07609485025714594,"22":0.16827726006388188,"23":-0.020579793025928526,"24":-0.02713850716867001}},"8":{"bias":-0.0019939789448489755,"weights":{"0":0.2568706634310127,"1":0.18375975556721635,"2":-0.09532140729814291,"3":-0.02950385982758378,"4":-0.04783883284271182,"5":0.1106285836141881,"6":0.14722889990423524,"7":0.17211894565357946,"8":0.09705875723708407,"9":0.2420268532076506,"10":0.029369110318511846,"11":0.2400400091530592,"12":-0.11201066488562529,"13":0.20177301317053012,"14":0.24208591044538272,"15":-0.05365674335766579,"16":0.28645873208607986,"17":0.09160827999530219,"18":-0.024422642365802688,"19":0.03594471570514385,"20":-0.03522576877010574,"21":0.019689477605044785,"22":0.21590370300595604,"23":0.08452447827406637,"24":0.2506376814342643}},"9":{"bias":0.22807347638471187,"weights":{"0":0.15989430630709028,"1":0.07165646392073931,"2":-0.09543953871601259,"3":-0.031064338777142927,"4":-0.10399174549754851,"5":0.22608618936760713,"6":-0.021704483089361282,"7":-0.002953057631463014,"8":0.06726010084626935,"9":-0.0721585632967036,"10":-0.10367926490213647,"11":0.05561509077425182,"12":0.12962771497152764,"13":0.12631167418958836,"14":0.12356914466973376,"15":0.003910504330865173,"16":0.011937064573874173,"17":0.15116144867121076,"18":-0.10807542394125068,"19":-0.027575119630082898,"20":0.17550797946219934,"21":-0.08347145584429679,"22":0.20699469256305758,"23":0.16313911081797403,"24":0.20361687870324066}},"10":{"bias":-0.045711934946241164,"weights":{"0":0.10233341028600033,"1":0.04359646689838416,"2":0.08740360607661828,"3":0.26600169002162855,"4":-0.03342291550447069,"5":-0.07127950425954077,"6":-0.1093465714546622,"7":0.1446290339771194,"8":0.2844403258483713,"9":0.25145789589276885,"10":0.06562728773069912,"11":0.030068363301515442,"12":0.10828208405035487,"13":0.029150662559228963,"14":-0.05897324758967827,"15":0.15087365212471548,"16":0.048130040531612184,"17":-0.034806818261654125,"18":0.21760049435684817,"19":0.24410161176312165,"20":-0.12050448309272359,"21":-0.04557985922543191,"22":-0.07766136216742374,"23":0.09976057330242868,"24":-0.0977678129269317}},"11":{"bias":0.0010351251208014882,"weights":{"0":0.22467262358391485,"1":-0.0022471819631084454,"2":-0.07216895438821044,"3":0.208586747057909,"4":0.05084383315171518,"5":0.22736122448767748,"6":-0.10730611403244097,"7":0.1999300841624131,"8":0.16145422750692426,"9":0.052303532773776536,"10":0.1647453188709245,"11":-0.06459289690661804,"12":0.0037996375102555355,"13":0.08326403951598343,"14":0.17851217234092373,"15":0.10639767094743333,"16":0.15210799459141927,"17":0.045439155582951994,"18":0.18755262681039744,"19":0.24418045251376058,"20":-0.057044813229739845,"21":0.050396770999262853,"22":0.09084672067674253,"23":-0.1274718338073532,"24":-0.1320479494399541}},"12":{"bias":0.12595846275662534,"weights":{"0":0.01933134574433534,"1":0.24379466156372628,"2":0.022678043962649302,"3":0.11360840654558368,"4":0.21744736132541553,"5":0.22241050383311728,"6":-0.05434039987773525,"7":0.2459178230165513,"8":0.2145352425547128,"9":0.0974377659652464,"10":0.005800636051551353,"11":0.259616866508473,"12":0.24298869602189502,"13":0.19049818211945643,"14":0.2293197656093558,"15":0.18340947902870866,"16":0.1729464573022588,"17":0.001872603808571346,"18":-0.1331248991543852,"19":0.060826731084409544,"20":0.026373476204979557,"21":0.08237920534760239,"22":-0.10778704944088605,"23":0.159861532699221,"24":0.055103144998990605}},"13":{"bias":0.3571880114997685,"weights":{"0":0.2739685555353306,"1":0.07884834855290253,"2":0.0028437155972280276,"3":0.18472242594411314,"4":0.28419214021033495,"5":-0.1301028019438353,"6":0.20746646270630506,"7":0.1158263538549263,"8":-0.00040272287046595544,"9":0.197414296067744,"10":0.048457038604266534,"11":-0.11448523166362068,"12":0.03774009768510004,"13":-0.10611476459069724,"14":-0.0753848925102483,"15":0.13865353086584636,"16":0.1991216481179123,"17":0.07207280590980447,"18":0.1346068691588679,"19":0.12330812512538214,"20":-0.0715187960190235,"21":0.038474065514754435,"22":0.06389562054130417,"23":-0.048140281859143985,"24":-0.06869556929124583}},"14":{"bias":0.10704806980499919,"weights":{"0":0.048774906840686194,"1":0.03932688881088723,"2":0.009635094539472897,"3":0.23530542764188472,"4":0.13020966353378194,"5":-0.00578952647559463,"6":0.13556638713542168,"7":0.11442068135939974,"8":-0.04793965902469424,"9":0.233986392060002,"10":-0.016379749546955882,"11":-0.00628016174002274,"12":-0.05862912033986274,"13":0.23903380183716358,"14":0.12920038507526566,"15":0.12874504087058272,"16":-0.06670178032699395,"17":-0.10539431597111687,"18":-0.06369826951160618,"19":-0.08416902454919015,"20":-0.11697269719432486,"21":0.2072689338962152,"22":-0.05838395784226034,"23":0.07442643934937809,"24":-0.12525464190124166}},"15":{"bias":0.07241584807614165,"weights":{"0":-0.1568420785384898,"1":0.16992309258968993,"2":0.2187343369687332,"3":0.14063599352240558,"4":0.025176844961735455,"5":0.025771939650198358,"6":0.056407507870610364,"7":0.09627854547349618,"8":-0.01637467111323051,"9":0.036028815660508945,"10":-0.09190015745072629,"11":0.18801641157873678,"12":0.09546408543221746,"13":-0.014052138838507602,"14":0.08072474005689079,"15":0.13522017402207037,"16":0.19627544569481473,"17":0.08453813287761609,"18":-0.03925111787345827,"19":-0.11436631192138871,"20":-0.13570705016117507,"21":-0.110600521161323,"22":0.2160233794840995,"23":-0.15979894638071668,"24":-0.13516071382900827}},"16":{"bias":0.053706355379157,"weights":{"0":-0.11803625662944461,"1":-0.03731208602865078,"2":0.22108430865399734,"3":-0.04450127511462034,"4":0.25238260101836246,"5":-0.012795357491196953,"6":0.03761950296225707,"7":0.063254647340952,"8":0.2843717140139258,"9":0.2644436969107934,"10":-0.07706852539626723,"11":0.16763937812864663,"12":-0.08942262841921117,"13":0.04413374213897552,"14":0.14006059611581495,"15":0.10638619106079124,"16":0.06269588516024835,"17":-0.03279279749876488,"18":-0.13884584329920557,"19":-0.09787600574503627,"20":0.2159431519654803,"21":0.17624469024820483,"22":-0.026064775894867026,"23":-0.07981362043562946,"24":0.13887742244112988}}},{"0":{"bias":-0.31562918320403577,"weights":{"0":-0.24524346254941876,"1":-0.24636992977741382,"2":-0.24181557071551238,"3":-0.37376477479198705,"4":-0.20171159476779274,"5":-0.08425064912051002,"6":-0.10696234592708874,"7":-0.45231966690135467,"8":-0.3551044795223849,"9":-0.18579950398678083,"10":-0.3712611901844636,"11":-0.48659470174467684,"12":-0.34841029046669486,"13":-0.36009907309189626,"14":-0.17533354863601558,"15":-0.29141079704833855,"16":-0.3081446591246274}},"1":{"bias":-0.25845007388241925,"weights":{"0":-0.052498407462193766,"1":-0.36135568148944885,"2":-0.4935978557180565,"3":-0.23986429366114445,"4":-0.2722085761330945,"5":-0.3895057241016752,"6":-0.2832776087886345,"7":-0.39435186832035174,"8":-0.42425015597197263,"9":-0.06256188705296355,"10":-0.4377586266881674,"11":-0.10906655017621229,"12":-0.3474253535603267,"13":-0.3018983086483953,"14":-0.42557198684057834,"15":-0.2499146252136748,"16":-0.08430575132045251}},"2":{"bias":-0.6336758357521778,"weights":{"0":-0.07890355839607435,"1":-0.20774151581748884,"2":-0.30444754839960253,"3":-0.35526409586364216,"4":-0.16245642107277275,"5":-0.15079624643117312,"6":-0.15603026141540444,"7":-0.44182917187777143,"8":-0.29127879437442245,"9":-0.19386454537606126,"10":-0.10871486248887073,"11":-0.3332224396023335,"12":-0.5266116092182644,"13":-0.2987406946483764,"14":-0.2399906389449253,"15":-0.169408174655213,"16":-0.2655851086067993}},"3":{"bias":-0.5088266802620345,"weights":{"0":-0.17001739896051962,"1":-0.07126430257062955,"2":-0.27488902415283806,"3":-0.21845124797987087,"4":-0.2628462269052952,"5":-0.23644222775768772,"6":-0.2445520027654544,"7":-0.4940187452571836,"8":-0.16987388288655633,"9":-0.47553039151087556,"10":-0.20811257403992284,"11":-0.3021747261224386,"12":-0.2949427382705695,"13":-0.19285810877776138,"14":-0.4568411778620933,"15":-0.09257695620645874,"16":-0.3935776348527501}},"4":{"bias":-0.5205261066027366,"weights":{"0":-0.072981314632493,"1":-0.13951424063895318,"2":-0.4011026652652842,"3":-0.09560742819114365,"4":-0.4209747916260725,"5":-0.30174711308949387,"6":-0.21864725215614422,"7":-0.30461195425409326,"8":-0.4746504050121957,"9":-0.08212968962089649,"10":-0.3914690449051967,"11":-0.27518681874992307,"12":-0.18988960156804924,"13":-0.32025167610863603,"14":-0.04410700716045209,"15":-0.3745314114508091,"16":-0.37351743579701174}},"5":{"bias":-0.3972218194174337,"weights":{"0":-0.3582029626741474,"1":-0.09731180228630006,"2":-0.38911377623290544,"3":-0.3225956992890749,"4":-0.38060678330668474,"5":-0.2582468428065258,"6":-0.27943393109382547,"7":-0.33850394477946466,"8":-0.24844099753045024,"9":-0.22018862950219317,"10":-0.2136913675992089,"11":-0.19266016704150107,"12":-0.37303832247285834,"13":-0.4871523353715608,"14":-0.2976881113766643,"15":-0.07737150361135747,"16":-0.1718067449174324}},"6":{"bias":-0.396105443658553,"weights":{"0":-0.221511564678132,"1":-0.2050915956598368,"2":-0.24130556338774908,"3":-0.2547759725085449,"4":-0.16942852567815514,"5":-0.19651840211057944,"6":-0.19808159029791256,"7":-0.24676724618444648,"8":-0.26765583188584047,"9":-0.2972111790321545,"10":-0.4440266619671216,"11":-0.5088444536221082,"12":-0.22117700065163667,"13":-0.4321668035796747,"14":-0.3010801015438284,"15":-0.21269297542555973,"16":-0.34510314865008557}},"7":{"bias":-0.4988036794361362,"weights":{"0":-0.11172633217584707,"1":-0.21458236168843114,"2":-0.40447595947535897,"3":-0.3837682966655012,"4":-0.3001997386787761,"5":-0.3589796179165606,"6":-0.07227104606012183,"7":-0.33204078824446226,"8":-0.2402649709027242,"9":-0.40705672874606924,"10":-0.17099422467877148,"11":-0.1833935422909087,"12":-0.5107077901341007,"13":-0.1828878233188559,"14":-0.09848797173443169,"15":-0.3112793493734491,"16":-0.24179703002943165}},"8":{"bias":-0.5630267120975746,"weights":{"0":-0.19160200027999696,"1":-0.10271693980090255,"2":-0.2805239480299576,"3":-0.32873260699979745,"4":-0.47912286618145045,"5":-0.3836055474888969,"6":-0.0867323732525571,"7":-0.16387422093621604,"8":-0.23138524004158773,"9":-0.40443667270797923,"10":-0.09838462645000741,"11":-0.22513262130253037,"12":-0.42462668938399634,"13":-0.4365277659025185,"14":-0.059105315365332416,"15":-0.24962089025047335,"16":-0.2771893279743367}},"9":{"bias":-0.566514059742267,"weights":{"0":-0.43494553085485377,"1":-0.08804504102299417,"2":-0.19053627891166242,"3":-0.23986815064780456,"4":-0.17546831370874225,"5":-0.2241699856368384,"6":-0.3022248381308648,"7":-0.3939139141671534,"8":-0.39925215472039155,"9":-0.09761222846326105,"10":-0.3141471617838577,"11":-0.13857830402871052,"12":-0.3659517648094016,"13":-0.27552281037112525,"14":-0.36998113484866474,"15":-0.06935736468405372,"16":-0.4185942567220993}}}],"outputLookup":false,"inputLookup":false}